{
  "data_dim": 64,
  "hidden_dim": 32,
  "noise_dim": 8,
  "generator_lr": 0.015,
  "discriminator_lr": 0.01,
  "seed": 11,
  "generator_hidden": {
    "in_features": 8,
    "out_features": 32,
    "learning_rate": 0.015,
    "activation": "tanh",
    "weights": [
      [
        -0.04773700672016768,
        0.05986785819993282,
        0.4242602089911208,
        -0.03436921535090383,
        0.00791747230967599,
        0.08739460890757282,
        -0.3153072840540078,
        0.011875250922207243
      ],
      [
        0.12979353364047388,
        0.29239974882639597,
        -0.4059330422483402,
        -0.19686701582993774,
        -0.4091783301863898,
        0.3097751026599384,
        0.19348428567514678,
        -0.4579320165134359
      ],
      [
        0.48203697837849097,
        0.46446582934302433,
        0.15397142067682829,
        0.11538943933410425,
        -0.34240938624737494,
        -0.4851623182065129,
        0.028483349105284154,
        -0.4402144471611345
      ],
      [
        -0.3098132803983599,
        -0.25795493221334503,
        -0.4698849362541977,
        -0.036058693737244504,
        -0.05953863302619196,
        0.34246864298957896,
        0.019115582413881626,
        0.14015892774584487
      ],
      [
        -0.00039701773594647254,
        0.16234512338984458,
        -0.04269583611780666,
        -0.22201192130168318,
        0.49766176146840474,
        0.49560288578548833,
        0.34028914560903684,
        0.20776546877671226
      ],
      [
        -0.18457198014861248,
        -0.2705557854375189,
        -0.21104187332922053,
        -0.4298545552954722,
        0.2664355370930815,
        -0.09946059725381905,
        0.34640035885334075,
        -0.11338638578204067
      ],
      [
        0.4581203348857627,
        0.3475909809687033,
        -0.4995027850120804,
        -0.2900650507102163,
        0.41001505020509577,
        -0.030011713197730223,
        0.48035059332192326,
        -0.10271488809374975
      ],
      [
        -0.426775416473966,
        0.12985086712220284,
        0.27859181492998825,
        -0.23011181141177356,
        -0.4131583576469096,
        -0.16716840811535738,
        0.46408752572742135,
        0.25788867241903
      ],
      [
        -0.38188856357689155,
        -0.25335784980796383,
        -0.39892094255383215,
        -0.43999371755808947,
        0.2968876035693336,
        -0.32223159130031803,
        0.05922991127377222,
        -0.05271514973992281
      ],
      [
        -0.30932157446677716,
        0.23211683212112666,
        -0.36882947533401067,
        0.14383068772510677,
        -0.3836378628520312,
        -0.07901825616385705,
        -0.28702801883139967,
        -0.23044191458019378
      ],
      [
        0.47079496106653196,
        0.30343463226815176,
        -0.19580266456512777,
        0.38490720648828836,
        -0.2893432178469219,
        -0.10587067871203219,
        0.35437605143350054,
        0.14177160061552005
      ],
      [
        -0.39980857649088,
        0.48912945887672404,
        -0.2868471152534297,
        -0.24184424957357858,
        0.27282961254186744,
        -0.17128719030950634,
        -0.20366781375294815,
        -0.4264738704614718
      ],
      [
        -0.41002857499023193,
        0.08223565902820881,
        -0.2570561952753761,
        0.10101303181653697,
        -0.12793608619076488,
        -0.04692776205761524,
        0.4591160189892595,
        -0.015945969132353934
      ],
      [
        0.07444062686577121,
        0.3665053045292831,
        -0.31726717249315917,
        -0.3459486470743219,
        0.4084477786948753,
        0.31773225277025824,
        -0.250460908141175,
        -0.31017215294199074
      ],
      [
        0.23931807769134636,
        0.4399805530378599,
        -0.30334794954991745,
        0.45000567634954663,
        0.3823938601786962,
        0.10343544768087917,
        -0.07845064076472795,
        -0.396033471807443
      ],
      [
        -0.4613706013754945,
        0.46235618805737605,
        -0.26173579088397125,
        0.20451730257099365,
        -0.24275678121110073,
        0.3236067862367596,
        0.09648423460622121,
        -0.2061920191363065
      ],
      [
        -0.3246807377143574,
        0.22021475862899,
        -0.431137053090696,
        -0.27155844169719673,
        0.059407443553871106,
        0.3523243071667656,
        0.11431223322193745,
        -0.2196537118294604
      ],
      [
        0.41745898183020846,
        -0.29575317080568475,
        -0.483533380025642,
        -0.2307295996194733,
        -0.054507283521299264,
        -0.43959773938229446,
        -0.3235509966652045,
        -0.13135411474986744
      ],
      [
        0.07218429851668719,
        -0.3682544070600918,
        -0.13800179374346228,
        0.3912587050554256,
        0.480411242688112,
        0.15677576163942336,
        0.1912511887224693,
        0.08454582692077675
      ],
      [
        -0.3597403512798097,
        -0.4647506354696123,
        -0.48219965513166957,
        0.410238899096545,
        0.20073699212183485,
        0.46285972240016043,
        -0.4787526000527501,
        0.13589042906695453
      ],
      [
        -0.017861227376529554,
        0.2304303798533153,
        -0.18101529193832872,
        0.49919028799818727,
        -0.4246597753470598,
        0.04605990280392786,
        0.23715510199152462,
        0.40021677844681186
      ],
      [
        0.23688712252089641,
        0.20353040454629423,
        0.29327696827722644,
        0.4149918545500611,
        -0.14821865333608358,
        0.18501818012116775,
        0.4009242895427266,
        0.3711304544117103
      ],
      [
        -0.08279412043370327,
        0.2911128243748082,
        0.3636039126130265,
        0.0729823910473194,
        0.12453593123592628,
        -0.11745859128610911,
        0.08252832724195114,
        0.10845275783605947
      ],
      [
        -0.4199422435628618,
        0.13915005076624473,
        0.49333601703394814,
        0.3796326156213762,
        0.22841876462401278,
        -0.11159496760067297,
        0.2350726968789874,
        0.08110741089511334
      ],
      [
        -0.059406417785006896,
        0.3389855289680246,
        -0.41601533074267455,
        0.2504624251580855,
        -0.4705294847123577,
        0.10163493185366476,
        -0.01892566965303218,
        -0.2703220850810068
      ],
      [
        0.19831909136290102,
        -0.002709158474578936,
        0.11448267762092912,
        0.4203420350991325,
        -0.24429057871831844,
        -0.488677774704748,
        -0.19898486428663897,
        0.17799488360108787
      ],
      [
        -0.2971698412311244,
        -0.3301714059158169,
        0.40551903298833075,
        0.1601252083469433,
        -0.05830872978927267,
        0.39183243964433123,
        -0.17294287562971,
        0.16579002217212424
      ],
      [
        -0.30166443490966766,
        -0.06920105976268659,
        0.3061909620463888,
        0.4140742815038828,
        0.3803116355394681,
        -0.11551327395258525,
        0.08316570006020456,
        -0.18357157468338225
      ],
      [
        -0.3637314701016659,
        -0.0034096771259429855,
        0.3370175839037611,
        0.3487353908665146,
        0.21111129773870657,
        0.45002063763125133,
        -0.2232038544096977,
        -0.33096414372988775
      ],
      [
        -0.049283742292854746,
        -0.22450514894858684,
        -0.2857907948625923,
        -0.08602007531288704,
        0.12539797190716565,
        -0.005872063739509957,
        -0.18478509059805628,
        0.3387583647255169
      ],
      [
        0.4823419808044716,
        -0.04701785883237279,
        -0.4255846458852716,
        -0.4682740771702471,
        0.3724096461109772,
        -0.4583828856442529,
        0.20847298073641748,
        0.07022418255543152
      ],
      [
        -0.1905985355276369,
        0.29213517595542876,
        -0.4806922107487112,
        -0.3638042091987124,
        -0.04555595800488759,
        -0.47502319639030105,
        0.329774766561598,
        -0.2630270831098474
      ]
    ],
    "bias": [
      -0.008184016385696324,
      0.001421248547385533,
      0.00814087185340669,
      -0.004094902799337224,
      0.004197299246549413,
      0.005956905263563688,
      0.0009068814722429633,
      0.002479164519544767,
      -0.00114461711530653,
      -0.011374006524689449,
      -0.001423890842287823,
      -0.00025670369304338646,
      -0.0008527802561364495,
      -0.0011597095204612183,
      0.010598619947329194,
      0.0016627999375059064,
      0.0004628494691385298,
      -0.007954733915190181,
      0.004651881540906794,
      -0.006783028068783048,
      0.004208676043371943,
      0.007436111896546556,
      -0.01594781397195117,
      0.012898684925286607,
      -0.008032120544362089,
      -0.009217749581399207,
      0.0025195016437114114,
      0.003600979153568414,
      -0.007948541963836821,
      -0.01186936059861911,
      -0.008259946628836059,
      -0.003694913844610095
    ]
  },
  "generator_output": {
    "in_features": 32,
    "out_features": 64,
    "learning_rate": 0.015,
    "activation": "sigmoid",
    "weights": [
      [
        -0.06191429848423456,
        0.03384989070608648,
        0.18908771629894708,
        0.1486149919183011,
        0.22220587728307414,
        -0.017563669142044387,
        0.07576330698063086,
        -0.1475650279836954,
        0.11161671178805231,
        0.15876949447195257,
        0.07048300885534177,
        0.10861678721224646,
        -0.14344048173097249,
        0.19977079233449546,
        0.2399790975780749,
        0.23807074623970967,
        0.018289341544345434,
        0.14558104264775593,
        -0.08933841418140025,
        0.20525713330459666,
        0.17766576212851024,
        -0.07595434632107576,
        -0.20890574366571163,
        -0.029405901422002827,
        0.024610954807797226,
        0.13397355807423927,
        -0.006065452446134725,
        -0.23566998039833736,
        0.15424353639014834,
        -0.2176383030770085,
        0.15034910761548378,
        -0.163442000333251
      ],
      [
        -0.08251841276433634,
        0.1440063888003607,
        -0.17969446099036565,
        -0.1756643546646209,
        0.008249501459184938,
        0.11168447717947076,
        0.17000844155329245,
        0.09463834622388084,
        0.22277487961517065,
        -0.0036377697990162975,
        0.22467873775260916,
        -0.2069902725685776,
        -0.13927725359390442,
        0.013343901290142006,
        -0.1047931327414609,
        0.11450886517554465,
        0.06944050353335973,
        0.011365952073795156,
        0.17182647687569091,
        0.03001991022155376,
        -0.0940484386612884,
        -0.05932037507469201,
        0.17264290122918094,
        0.20026935789390996,
        -0.14576379554014587,
        0.17543557205869284,
        0.23419306565347994,
        0.012116981823568029,
        0.03651683200693091,
        -0.1495444254246157,
        0.017899781825299735,
        0.0015794067014898274
      ],
      [
        0.0526797470056817,
        -0.2359150031835322,
        0.23499720906869928,
        0.007886262224859652,
        -0.04975567954517612,
        0.15025828717890677,
        0.031526529314932134,
        -0.0046265713011641825,
        0.09521137461985135,
        -0.2168859537666229,
        0.01959665118736657,
        -0.043051437016352175,
        0.22840920788685395,
        0.21184186482334,
        -0.11515641970884648,
        -0.013246028451906373,
        -0.18649856501060802,
        -0.03309236133248571,
        0.1577465443182646,
        0.20019382359229596,
        -0.011622488342368996,
        -0.09130126022720134,
        -0.1541761718863537,
        0.058803547927753434,
        0.21288284079679082,
        -0.1851191100534254,
        0.13943401543640455,
        -0.23869347776009162,
        -0.15291996308594275,
        -0.13645715480378898,
        0.09350150440750922,
        -0.08897231875154621
      ],
      [
        -0.07213472344284787,
        0.06049973615683592,
        -0.19690941477070317,
        0.11526170313403987,
        -0.1888228032975105,
        0.004672846482449012,
        -0.12475231096640654,
        -0.15112079837460685,
        0.014656175014992185,
        -0.03098703860867954,
        -0.061758188914913206,
        -0.04292874601581797,
        0.014878649599362068,
        -0.16989538137514051,
        -0.14750955824476772,
        0.06637077961285551,
        0.06947959309659724,
        0.014776585523900994,
        0.17511874190766644,
        0.055617309049771295,
        0.178659672096155,
        -0.13358228245288398,
        0.12065024232396555,
        0.1550665557835501,
        0.20206886866767285,
        -0.09182208350996894,
        -0.09289627364700612,
        0.2112363407270268,
        -0.14073594795918218,
        0.24887555191852165,
        0.19345738757280295,
        -0.18287849432362457
      ],
      [
        -0.13032587057051945,
        0.11333404780017407,
        -0.12015244757476765,
        -0.20150997864217704,
        0.1659930247133725,
        -0.03932675499574336,
        0.14492491216324152,
        -0.187021403325632,
        -0.04871331120336376,
        0.0927576159760316,
        -0.24102056257324136,
        -0.1495097288686513,
        0.09123273666720717,
        0.20566352675130653,
        0.2342891933286079,
        -0.1921752975683995,
        0.002826855595129272,
        0.12908533912886394,
        0.001357250324121348,
        0.09286631446525596,
        -0.1553756998830359,
        -0.21467781159898336,
        -0.19687018524069047,
        -0.2312767294748414,
        0.026000963810412094,
        0.007536079343371578,
        0.03431832726363072,
        -0.17671586013298463,
        -0.15772108984244035,
        -0.14806723241893238,
        0.17003360860274058,
        0.24517606180206186
      ],
      [
        0.2135616655900324,
        -0.20197875303784102,
        -0.21865980045654407,
        0.22566985278576004,
        -0.01904115935315008,
        0.1319532269587077,
        -0.08655527424678931,
        -0.016655032593474173,
        0.007260199749241162,
        -0.034582695327962855,
        0.050734923112919925,
        -0.24317375701323043,
        0.10056823036059001,
        0.17236575228928547,
        -0.15903894230494717,
        -0.022585433130251867,
        0.1198339545972161,
        -0.04734448252423207,
        -0.15268657696070595,
        -0.16749558162449954,
        0.006476471538881805,
        -0.242212153642093,
        0.19671365004747302,
        0.1506673336128718,
        0.10280611761273874,
        0.18050080505200894,
        0.06445899396078551,
        -0.047874334885641745,
        0.04994785313378144,
        0.0020005811201525983,
        0.24115126095036143,
        0.152421040483833
      ],
      [
        -0.12087407562588029,
        0.2055892571915621,
        0.12224583179337178,
        0.13898295774742264,
        0.1572134512783677,
        -0.04728362357132676,
        0.19817669351789283,
        0.18991402757201287,
        0.09733333085198374,
        0.13370192939524808,
        0.132680319250891,
        -0.04718740659173343,
        0.11132200643299266,
        -0.21483042532953725,
        -0.07911109381847709,
        -0.015563914007178567,
        -0.2447927682324831,
        -0.07218168847241374,
        0.0693780351608408,
        0.06206410487795454,
        -0.1338316955825535,
        0.2223994138167357,
        0.08306141772195653,
        -0.08103754544837101,
        0.0799468031557475,
        0.03492351832139701,
        0.016569844990016368,
        -0.055163895576530134,
        0.24994098559290834,
        0.0711376206627908,
        0.10055081869403959,
        0.13083869011733365
      ],
      [
        0.23993315278513133,
        -0.2389007716378557,
        0.057492386643385414,
        0.11941929534636583,
        -0.12163982775844501,
        -0.049000384895766046,
        -0.2247123156123985,
        -0.1522796224240839,
        -0.0618888872802878,
        -0.20096260905210334,
        -0.12469271056512556,
        0.20279488954225156,
        0.024977555836901356,
        0.0038281833184808708,
        0.23351514757846403,
        0.033724302647565325,
        0.24743877640150613,
        0.06904014332694226,
        0.15496221794309906,
        -0.21183867046618135,
        0.04867527851579847,
        0.12955779467305997,
        -0.22749268316116064,
        0.21523605730014997,
        -0.17029686730500668,
        -0.014144749314845982,
        -0.16536919733544386,
        -0.0021134547574594093,
        0.05545929994085116,
        -0.2206073779231041,
        0.22282164757968156,
        -0.03958289442765589
      ],
      [
        0.013512798075652234,
        0.04930413391916152,
        -0.06680525805121318,
        -0.10722143056129718,
        0.0774348684639891,
        0.029812020375494713,
        -0.10827578757960028,
        0.10817200493031602,
        -0.10248534317037857,
        -0.24259727027165365,
        -0.1271286857030977,
        -0.228505680727737,
        -0.17163736894241302,
        0.1274639191136359,
        -0.054681901179109905,
        0.19924472987946848,
        0.12428417445957905,
        -0.22496728818360326,
        0.2441582959986886,
        0.22221161916640914,
        -0.2129427410947551,
        0.2029629821834563,
        -0.03509136065036382,
        -0.01134201801787492,
        0.2371041255027271,
        -0.12792366405809072,
        0.011482405313235364,
        0.21853511488059005,
        0.1115584545696343,
        -0.015996398095302757,
        0.239124632594015,
        0.158274355352119
      ],
      [
        0.05198553667749288,
        -0.19196513670279192,
        0.06264692895415239,
        -0.02230026229730845,
        -0.14833298309104964,
        -0.22454762758306038,
        0.013949753325591714,
        -0.18783179951202722,
        -0.029169788028786493,
        0.0844114229984866,
        -0.02179983686169195,
        -0.1188019938090368,
        0.04128099580561811,
        -0.04014495397432107,
        0.13929727694835478,
        0.01599001835989055,
        0.24894765130980617,
        0.22617468910991162,
        0.11680220240697428,
        -0.13093284883159026,
        -0.19268854463236326,
        0.19660757677764915,
        0.14238019463996057,
        0.0623930141159848,
        -0.06979140906728694,
        -0.11399702163873321,
        0.09230636354201133,
        0.03235484711378414,
        0.04607485500847495,
        0.06627585741164294,
        0.12627322090679505,
        -0.1551406108947004
      ],
      [
        -0.12549451985862542,
        0.2400031599886265,
        0.20799604261967022,
        0.18936824174190717,
        -0.23031167757284254,
        -0.2197171868188419,
        -0.1145416167296647,
        -0.037403505341944504,
        0.06157577414603472,
        -0.19862936927469962,
        0.02090862627087286,
        -0.21369174419721565,
        -0.2067417991637551,
        0.0881806392399449,
        0.02537231291606346,
        0.06569064598072019,
        -0.06335880764220818,
        -0.010701739472167997,
        -0.14479649950879547,
        -0.07818341842496263,
        0.1224789959181823,
        0.16928630043218834,
        -0.2128039419810738,
        -0.1901759388327045,
        0.15475231945592924,
        0.06191936351821871,
        0.13429722206925795,
        -0.1434772205821989,
        -0.037803806459032904,
        -0.12101428177150506,
        0.15488078737515087,
        -0.06549091860338895
      ],
      [
        0.07672330455095215,
        0.2442327784249667,
        -0.08774721118445489,
        0.024461912320109327,
        0.12320489981200235,
        0.21079637655195863,
        -0.03614489915980293,
        -0.06542923815662677,
        -0.20111623733396103,
        0.18720944822778177,
        -0.2110416818650817,
        -0.20866230955680776,
        0.031959777819105584,
        -0.007641326690922222,
        0.09242928921490202,
        -0.10101289835933198,
        0.137652320338035,
        -0.21187780895968022,
        -0.14306314422833366,
        0.08125003901226728,
        -0.20939336792667654,
        -0.09823947279798963,
        0.11229670857137365,
        0.09703166867972844,
        -0.109015108408816,
        -0.17874121084421393,
        -0.0708704586544302,
        0.1130439650125178,
        -0.06691125696792166,
        -0.19108151800850648,
        0.10486866169348687,
        0.03454374591200868
      ],
      [
        0.20920359656813917,
        0.21972162943529322,
        0.20646223631447483,
        -0.030952298886344133,
        0.15161497612593614,
        -0.09743434698446152,
        -0.09115073175356149,
        -0.050252687596895385,
        0.21750921367246143,
        0.19712846380121662,
        -0.12596032387807538,
        -0.06926362326667126,
        -0.06730966287528825,
        -0.06840541172343594,
        -0.0522602774345501,
        -0.0564704430077137,
        -0.15261830399188217,
        0.03190895932587044,
        0.14875642123613916,
        0.020384523777480807,
        0.16809919499637616,
        0.03137429150247636,
        -0.16179177960066482,
        0.12956584509291774,
        0.19018053384631203,
        -0.1093475906506305,
        -0.2387550896710899,
        0.007899875599097689,
        0.022017291337569914,
        0.03384132237450855,
        0.23333141595115525,
        0.07553530483873215
      ],
      [
        0.15215677816599463,
        -0.21780997846222827,
        0.023593299739431535,
        0.14397289004705563,
        -0.2080159483027861,
        -0.20922796754284032,
        0.11857903712693339,
        0.19966013998019558,
        -0.2077180522012866,
        0.06719399138522816,
        -0.17793878982001254,
        0.12301351350987329,
        0.07462788405818332,
        -0.1272602052290143,
        -0.13973049252661385,
        0.13285946539065305,
        0.010855697309291305,
        0.13230491505606473,
        -0.052962921874959726,
        -0.08125746357290933,
        0.23423240573992915,
        0.08624338218679958,
        -0.0030864959939049647,
        0.018682205492568063,
        0.11063148335988786,
        0.1041069326247896,
        0.20735455797231303,
        -0.04472669894029659,
        0.1630971011974644,
        0.08326508750913375,
        0.17671504404080676,
        0.15308746784578256
      ],
      [
        0.16698468221557058,
        0.19446356990119906,
        0.22903918537639156,
        0.0701021150603518,
        0.011894325181364853,
        0.1047866743427992,
        0.15110188729644827,
        -0.039337752146488464,
        -0.04004029598051664,
        -0.1767776905593734,
        0.12078258167153622,
        0.24548814137941352,
        -0.062275587923130774,
        -0.16610021387485088,
        -0.14763890502290702,
        -0.03737055401376548,
        -0.10398034519880235,
        0.23487361874454468,
        -0.22043289788135745,
        -0.0957187310653265,
        -0.1924641328875727,
        0.07409772257069076,
        0.13800634398024972,
        -0.16037316190825118,
        -0.2186314412865651,
        -0.020518189803342232,
        0.04198885786628415,
        0.20459995763477135,
        -0.23170533199222434,
        -0.1957131473090586,
        -0.1578628720525824,
        -0.14144417134182372
      ],
      [
        -0.13230012687027728,
        0.10865174845276067,
        0.04744660236376937,
        -0.13806054800454376,
        -0.15751346491045223,
        -0.10938195351305416,
        -0.16372089263296513,
        0.12893802793272574,
        -0.09403489585012381,
        0.024175963486650208,
        0.15851545902713768,
        -0.01012395012534664,
        -0.11961584672534271,
        0.1936904125620381,
        0.2070477574187996,
        -0.07887689026985252,
        0.023743278801318282,
        0.22846448866329236,
        -0.008796612067476386,
        -0.13966566685769238,
        -0.22518961584200436,
        0.22370756704940564,
        0.1508116570000537,
        -0.05743254542870322,
        0.013815542720753944,
        0.007891896622428498,
        -0.11281530835175653,
        0.24517076727694118,
        0.0787439961989039,
        -0.13125097530960894,
        -0.24452723401055398,
        -0.013484890380338193
      ],
      [
        -0.06431934087656983,
        0.14839308341694665,
        0.10665512084968883,
        0.05306728766181986,
        -0.1713506418343503,
        -0.17158078332208596,
        -0.08895796167401832,
        -0.12042921366394224,
        0.18461123056935044,
        0.00808866372596056,
        0.06860342366000331,
        0.24652317875576468,
        -0.11678124068126028,
        0.01733060636128494,
        -0.17453527564410395,
        0.1351529142618431,
        -0.24934254378462523,
        0.16082980206027614,
        0.17318356359411932,
        0.16112132638535312,
        -0.2087129260960022,
        -0.1150123165950737,
        0.10820853954246526,
        -0.20150611701388457,
        -0.009880365856201976,
        -0.01560320835441963,
        0.22764701805819645,
        0.04325800199686006,
        0.17855495129223592,
        -0.09813499720929748,
        0.14479061170996624,
        -0.04147781800956798
      ],
      [
        0.20839012856569478,
        -0.20451098261563513,
        0.16310609719801208,
        -0.1457706221086699,
        0.021772922991998178,
        0.01284393795084637,
        -0.17121014534163922,
        0.1659986029094319,
        -0.09432651757659913,
        -0.0946686367191548,
        -0.21200438428705315,
        -0.0971662104115881,
        -0.016387607266571805,
        0.10760800368094187,
        -0.07012719799696258,
        0.09357463626582257,
        -0.1970842175599355,
        -0.05296447715799103,
        -0.01908558643305482,
        0.23348057463347066,
        0.16486661351591447,
        0.07700535221905834,
        -0.24382341376619943,
        -0.06141354570704709,
        0.10498533506276768,
        -0.13133788198691865,
        0.03211112777330128,
        -0.020941981952629758,
        -0.24470149721431192,
        0.24579792021644373,
        0.1496795445894444,
        -0.146689116215325
      ],
      [
        0.05799517847019567,
        -0.10499281951301685,
        -0.06220743238140722,
        0.019954011743011982,
        -0.10087042345739437,
        -0.08113929192928543,
        -0.053931610872906745,
        0.08332000093185125,
        -0.12159884079984096,
        -0.1501912197536515,
        0.11557503845757225,
        -0.08540109629826839,
        0.22244523294151672,
        0.03133518834624553,
        0.11175601265291396,
        -0.08439529563052177,
        0.16336783669409213,
        -0.20380225051160047,
        -0.17945278176598115,
        -0.2026958184031118,
        0.0887342334568313,
        0.10406673497945644,
        -0.1601619582138097,
        -0.04884531447680658,
        0.16823668993498914,
        0.04631346431049325,
        -0.20483188542077904,
        -0.13667978725074956,
        -0.17151083575984993,
        -0.18782870934855778,
        -0.046483201817023846,
        -0.213713674318341
      ],
      [
        0.21013617937430729,
        -0.03713178053695364,
        0.005002307843465833,
        0.07390624882990753,
        0.1336057611581541,
        0.1612544183997252,
        -0.05709840028054655,
        -0.08427165514977618,
        -0.04319519148572418,
        -0.24285240861688223,
        -0.05025957340327244,
        0.09970995133436929,
        0.24077830479491333,
        0.14465561585384723,
        0.07962443148421515,
        0.05358206506359412,
        -0.24087910387012265,
        -0.08439282002619372,
        -0.07843856291084345,
        0.07569368669975247,
        -0.197303454067679,
        -0.0615147170021405,
        0.004343051809318107,
        0.1444271135108133,
        0.1618091158637304,
        0.05537307946786631,
        -0.17037905331743017,
        0.1333906848397064,
        0.20132206275919703,
        0.024496481425981296,
        -0.07340294494434775,
        0.00013142685681505426
      ],
      [
        -0.17926390473755197,
        0.10630499214266027,
        0.24291465506263302,
        0.00818986987649487,
        0.10779931875909152,
        0.16816428526400382,
        -0.1514097984769759,
        0.22244096365154356,
        0.06396871061143954,
        -0.15141751875569923,
        -0.20868227209028878,
        -0.1279120585083674,
        0.0381138468232985,
        0.09840080814750264,
        -0.08568200925654289,
        0.21406010705298106,
        -0.06953896397234374,
        -0.01840904946484036,
        -0.18767124925360826,
        0.23699759499853282,
        -0.18240404025043738,
        0.20189871058111233,
        0.02149698142101089,
        0.03045402835037185,
        0.029704976524252996,
        -0.1179843370120059,
        0.2049338408503178,
        0.24613636995651964,
        0.15860185430818877,
        0.050990862855088415,
        -0.18845498307402142,
        0.16225915717721412
      ],
      [
        -0.10595728127427885,
        0.1981271784024742,
        -0.12997002162080729,
        0.03696966485127423,
        0.16538046997899894,
        -0.15672604193590206,
        0.02397202790670853,
        -0.21177139525508296,
        -0.23344685990118674,
        -0.16024670743711214,
        0.24323474507586815,
        0.2195810851689429,
        0.07915713803059443,
        -0.09638911352768782,
        0.08532019989064282,
        0.11838595585070957,
        -0.05930617245279144,
        0.046098848770339436,
        0.1521740278159398,
        -0.24169493598834363,
        -0.1504128081758632,
        -0.016180029861940542,
        -0.17874657756501675,
        -0.05671218599123164,
        0.03436054904773636,
        -0.1632760907498902,
        0.010042260620567383,
        -0.11811104219755847,
        0.0337264390949678,
        -0.08372022106933073,
        0.07116439878212538,
        -0.2309222432243276
      ],
      [
        0.08557075673792872,
        -0.1771919376881414,
        0.23009456485991472,
        0.04995083415794878,
        -0.015207029274928077,
        -0.0446006431732246,
        0.06189978923286549,
        0.09475662169275222,
        0.12873689410841718,
        0.12631270597673167,
        -0.006853783083670785,
        0.24756921407525861,
        0.1693490293293803,
        0.17763548508924504,
        -0.04529994359534615,
        -0.03251352032035759,
        0.03317737928846996,
        0.2026017274838895,
        0.012626141350902738,
        0.012300893756680033,
        -0.03368091954696648,
        0.2021871874257933,
        -0.08947506500843763,
        -0.22276536772799063,
        0.11331176766565405,
        0.2002261500977703,
        0.11570801879278204,
        0.04866436841823512,
        0.12601276876385042,
        -0.09782959844968676,
        0.04653666915851183,
        -0.21488961619602498
      ],
      [
        -0.18796323829846281,
        -0.02683428220251533,
        0.00100956855571949,
        -0.05150166654043418,
        -0.22400307237250686,
        0.09773023729502367,
        0.013153392663208356,
        -0.13039730883140024,
        -0.09651614499985943,
        -0.052422114888386905,
        -0.13218773452790278,
        -0.21593303078440673,
        0.20563026668449594,
        0.23306333986141706,
        0.08267588656203613,
        0.18292515029448284,
        -0.03942740494303065,
        0.1527520336926371,
        -0.13887092732829562,
        0.12345145611172309,
        0.0333532855672932,
        0.20163291188279645,
        -0.20085627856166574,
        0.14624127856824626,
        -0.18836009706652732,
        0.018785799800049425,
        0.2255728780266226,
        -0.24967544255872082,
        -0.12827563653129348,
        -0.10015221954525676,
        -0.0873779857698257,
        -0.21860441932957442
      ],
      [
        0.1973963546346933,
        0.1571573178214002,
        -0.05193039288800719,
        -0.07160452468031679,
        0.042907080154648225,
        -0.22654821096455485,
        -0.23445797172005528,
        0.19939160543265144,
        -0.09554244556686153,
        -0.0012068943389164327,
        0.21658936833242565,
        0.23850270877761084,
        -0.013709699999546132,
        -0.14697041613997977,
        -0.10262556389709741,
        0.2108527755544398,
        0.19824852055222814,
        -0.15231536020482112,
        0.16933212582997031,
        -0.07276217451504234,
        -0.013970100703444892,
        -0.16416876228887683,
        0.18973513971950146,
        0.2480338702982491,
        -0.14956243550805504,
        0.06600382113596444,
        -0.15393479610401486,
        0.1903300021038207,
        -0.22512910852058102,
        -0.19673129678715726,
        0.11309852333647769,
        -0.09348100817314257
      ],
      [
        0.2001143575968977,
        0.18457110544113714,
        0.10641344924795704,
        -0.18252341000014488,
        0.09792568193714604,
        0.21907227508416816,
        -0.027507539152907743,
        -0.21044695776873268,
        -0.13815707485383993,
        -0.09651840683022533,
        0.10510076926139565,
        -0.15179558631238319,
        -0.1595170434101392,
        -0.13239438139773418,
        0.08214140345422577,
        0.14505605636622615,
        -0.06383091813802927,
        0.08104590312025035,
        0.19229942699507924,
        0.04500718087513934,
        -0.13559863256933796,
        -0.09963819546356288,
        0.21331754942427442,
        0.08361440027877828,
        -0.11177662078608745,
        0.06995973674918217,
        -0.2049034044935171,
        0.24159247401485323,
        -0.02989393209333566,
        0.014239233856407582,
        0.015474215185944376,
        -0.22729653329724167
      ],
      [
        0.04975277118786398,
        -0.10811245856350872,
        -0.12500511508626588,
        0.1517367900318674,
        -0.20619525685207934,
        -0.10703419561190697,
        0.12788575412462463,
        -0.12704877144147653,
        -0.11013414393826812,
        0.023570639159984905,
        -0.15707689623694562,
        0.1982395083096639,
        0.2437246976741321,
        -0.2333238254055999,
        -0.019465188704710926,
        0.12481106717786322,
        -0.057782635113230625,
        0.2146220729313867,
        0.00028812797062732477,
        -0.1599221235077774,
        0.027782504994180043,
        0.0724486055144726,
        -0.07035347774807242,
        0.07922294273731258,
        0.14096498482523048,
        0.008145049131145287,
        0.003087006560136096,
        0.17276677534580828,
        0.09202417324489286,
        0.010457010789666678,
        0.2259794193790797,
        -0.1631928162109348
      ],
      [
        0.1400133863659076,
        -0.16703065077241117,
        0.05438696784385354,
        -0.13242518463090364,
        -0.029878056932091283,
        0.1361697568047693,
        0.14322484494337068,
        0.14545708192197282,
        -0.13239517947803078,
        -0.005177619401115386,
        -0.13921013085301057,
        0.0401755245958764,
        -0.0005485315127080578,
        -0.23213538107379303,
        0.04857940381857922,
        0.10767533723660733,
        0.03644480982866644,
        0.18646243602712667,
        -0.1602686644093151,
        -0.17417073051030654,
        -0.24103392177067484,
        -0.0019179942246929026,
        -0.032610307206798916,
        -0.029393365128396888,
        -0.1181930992458559,
        0.14933535799520178,
        -0.21387133968059246,
        0.20349282908730693,
        0.03462603516002255,
        0.021465327636916304,
        0.14559932190260821,
        -0.13110599702142506
      ],
      [
        -0.17687025726563269,
        -0.09455325161767103,
        -0.2289300193672262,
        -0.09280875114710745,
        0.060683382296420646,
        0.012803441617076795,
        -0.11761518746127586,
        0.04428354796002369,
        -0.2057380292712134,
        0.16010447432249456,
        -0.16425516802689008,
        -0.12267329441606831,
        -0.1702038901604725,
        0.09535221289639065,
        0.16540729662360198,
        0.14320103460660427,
        -0.21946196569921445,
        -0.044682839944047835,
        -0.06771084561422,
        -0.14179287302098836,
        0.23517971684613598,
        -0.22893970487640267,
        -0.005303075500307828,
        0.1306017758577707,
        0.2429238765481297,
        -0.1778056605115964,
        -0.022249640153402323,
        0.12245258829228635,
        -0.23037360991267575,
        -0.1296554709286824,
        0.19508516525630712,
        -0.17935645644852105
      ],
      [
        -0.053598154061398215,
        -0.10141203544232207,
        -0.0382988201771966,
        -0.21160724658799138,
        -0.23268516740846415,
        0.24848177965487772,
        0.131603445413535,
        0.1169751853772195,
        -0.13466940177527434,
        -0.12387120255108983,
        0.025560078108754974,
        -0.12939237758157332,
        -0.019421055466983687,
        0.2161237634044959,
        -0.06831250733915256,
        -0.08201023672523274,
        0.24048306574353143,
        0.05548876904760117,
        -0.22981785799982296,
        -0.04825742555619314,
        0.07457737231589093,
        -0.2208900723956631,
        -0.07860287257858678,
        0.09742249682492839,
        0.1816187566468278,
        0.04509281237250517,
        0.1935159966430811,
        -0.0186071390294481,
        -0.05359154499174175,
        0.1717636394541979,
        -0.05923277821725509,
        0.14048724301620166
      ],
      [
        -0.1422151045449271,
        -0.07601203076829745,
        -0.15784378625111822,
        0.024649083569041802,
        -0.16816910467501503,
        -0.14844818554351363,
        -0.1427448193744131,
        -0.01618274985950986,
        -0.09598273159826187,
        -0.026167783565617508,
        0.2468557935471209,
        0.08977567249966163,
        0.18143830759479923,
        -0.14757743049058816,
        -0.05831089905011266,
        -0.21330213023367522,
        0.09577122624329319,
        -0.06857210497561657,
        -0.11296189385763371,
        -0.24085657726933699,
        -0.15886569481943952,
        -0.11879307957349546,
        -0.05338307981546895,
        0.2116814721000511,
        0.10792900515546133,
        -0.11555197837580923,
        -0.06967797983681798,
        -0.1732980029500259,
        0.21839478084723182,
        -0.0702803331868122,
        0.13274280719744028,
        0.1118053968877472
      ],
      [
        0.2035441430055632,
        -0.23970047702399694,
        -0.08875283977445728,
        -0.05787950277490077,
        -0.20852892796308048,
        0.19103280323464245,
        -0.0873780480299034,
        0.13537832814253886,
        0.009513544974693722,
        -0.22238801144157697,
        -0.05285538940982586,
        -0.13079383912927975,
        -0.22953602147525426,
        -0.17458315448792405,
        0.04780532651216659,
        -0.23397393126105454,
        -0.09387665189770363,
        -0.03796647142182991,
        0.02188396025188594,
        -0.18209085255439256,
        0.10343795978624824,
        -0.11973408887735904,
        0.11281861620847358,
        0.08308982930050686,
        -0.17621106626718896,
        -0.1474520692838337,
        -0.10994635212788308,
        0.10636888120442302,
        -0.047364807809279846,
        -0.0568272468513378,
        0.1829317087678465,
        -0.13690592393027656
      ],
      [
        -0.10408958283905015,
        -0.0777493218765162,
        -0.1422236563890705,
        -0.229628544530448,
        -0.23775564533842036,
        0.06521436711917848,
        0.033048400883210725,
        0.15423364345683702,
        0.23785775832808145,
        -0.1010781773587276,
        0.08533420062106563,
        0.20936764372889505,
        -0.14200984834051797,
        0.09450558606216573,
        0.08336492330902295,
        0.22733357115549654,
        0.1840025979352153,
        -0.13257799515048269,
        0.06648883819486265,
        -0.20491367136468974,
        -0.036064895588101595,
        -0.053710675227206295,
        -0.2200348379724181,
        -0.05830233332969371,
        -0.08602337205949712,
        -0.0013202895104597239,
        -0.11007795931801309,
        -0.17068473744014395,
        -0.048940422561295466,
        -0.012246754060424355,
        -0.16647657022707482,
        0.0825484478472364
      ],
      [
        -0.12995302623626495,
        -0.20322875817244973,
        -0.07882212858457137,
        -0.038936307091921724,
        -0.17468379337667364,
        0.04104406856545966,
        0.10058764261343836,
        0.026614345112535062,
        0.0998029229713477,
        -0.23826717747108125,
        -0.05416888500219778,
        -0.06774383897355375,
        -0.21848666581205206,
        -0.047742646507215755,
        -0.22257549510406963,
        -0.0019257062390335383,
        0.043023966323089344,
        -0.015630734697089362,
        -0.08745883985030724,
        -0.12339652116111798,
        -0.23810648791601455,
        -0.0763674169791283,
        0.19598981689641523,
        0.032817019705563104,
        -0.11878977641372489,
        0.0841070390473628,
        -0.15705967699734058,
        -0.015422417680572512,
        0.057798940509248296,
        0.22717330444353873,
        -0.06892902519236296,
        0.03802709002173478
      ],
      [
        0.2213686700583672,
        0.13583445044411085,
        0.0637805961366438,
        0.060322261075266476,
        -0.04450306839927268,
        -0.04235882310573083,
        -0.11204364895132654,
        0.16489601918792027,
        0.1896749701502983,
        -0.05902145453975417,
        0.20481172805198683,
        -0.2308795278049088,
        -0.18203975383616405,
        0.0035663756110188927,
        -0.0957383273509494,
        -0.06963323665254838,
        0.238540440641543,
        -0.1752326823695936,
        -0.15393132524607434,
        -0.13586053282561691,
        0.09010098721663198,
        -0.13265333841146543,
        -0.24939873764303733,
        0.021944356565852363,
        -0.05300139605308234,
        -0.1303401472181235,
        -0.0031576981091031115,
        0.07510211816208337,
        0.024254262443096995,
        0.06207728487107578,
        0.030175466746801015,
        0.165437530161332
      ],
      [
        0.23424587345423287,
        -0.08389820479161644,
        -0.0773654187822847,
        0.1933849525925732,
        -0.09318379337454889,
        0.10857283808448362,
        0.09761645849323854,
        0.0932833493809121,
        0.23256903749596894,
        0.16161329148565645,
        -0.1707526595046366,
        0.060485258776529195,
        -0.004873017327636639,
        0.031644464903500376,
        -0.06567318659091274,
        -0.10787237780083957,
        0.12423767161364876,
        0.01706774127648354,
        -0.1310050815571965,
        -0.12506138767330868,
        -0.08784829602874712,
        -0.16129975734164537,
        0.006577331959523163,
        -0.1868097784441202,
        -0.21913802962369752,
        -0.21589802155557342,
        -0.1984505741976593,
        0.10255922495789958,
        -0.19377443024533902,
        -0.02387594190726104,
        0.1363326730504805,
        -0.00978758054540781
      ],
      [
        -0.16877610718727923,
        0.18287599054277057,
        0.18450036386000584,
        -0.22310678986498933,
        -0.12293353351919152,
        0.004088405031990659,
        0.1481742847874394,
        -0.053798076996875846,
        0.10834028772512555,
        -0.12436153058342148,
        0.1075342419966943,
        -0.08667617920233474,
        -0.08312912317921993,
        0.12954847406955727,
        0.17104368203608963,
        0.1639649967568077,
        0.03371521108665093,
        -0.03967949103486818,
        0.10364516382925136,
        0.061651964241138404,
        0.16526835245975643,
        0.1504505487577293,
        -0.18754560646425636,
        -0.0614783319075282,
        0.084295694570259,
        -0.1346922089239152,
        -0.1574492299760288,
        -0.2430995560033104,
        0.04270507356036726,
        0.2206858015475509,
        0.23534586376175495,
        -0.1831669640382262
      ],
      [
        0.09374831126471438,
        -0.0403303211419196,
        0.06564585868646718,
        -0.05155347171842924,
        0.21671926295112617,
        0.24448107916053305,
        -0.22561541289834727,
        0.10662478636456947,
        -0.19071015700593275,
        -0.22880045800147633,
        -0.10702313572252153,
        0.1156334042859269,
        0.24682987672747383,
        -0.18989394612016752,
        -0.08501027983588061,
        -0.23675021898121243,
        0.021341708533480715,
        -0.008428827915344236,
        -0.06326502756544232,
        -0.09533022411904782,
        0.1502137960623877,
        0.16928011424988718,
        -0.1082018125454915,
        -0.05422209825244982,
        0.05886821934142644,
        0.1326243891072801,
        0.24048485333075054,
        -0.05537569417818994,
        0.096983407944747,
        0.02303778420593938,
        0.15013567381655346,
        -0.17651825331857943
      ],
      [
        -0.16255668530782305,
        -0.1966608599469151,
        0.21653059620122564,
        -0.12422728379266389,
        -0.005824000603545983,
        -0.18955070106649644,
        -0.08815493501059571,
        -0.2403343159179843,
        0.03323510139828007,
        -0.17837936465490792,
        0.06247656499004651,
        -0.11308998507384918,
        -0.1362476043593727,
        -0.009002716138641445,
        -0.067265882263968,
        -0.12047246729131354,
        -0.2244548036966624,
        -0.21774428721241607,
        0.19647943113606403,
        -0.09526482678754154,
        -0.21092247255759308,
        -0.15885119456978714,
        -0.00839018170548607,
        0.24862466462054153,
        -0.14916117514907046,
        0.18354122370500492,
        -0.007773120415987748,
        -0.04267464521417192,
        0.1533723109909477,
        -0.05190045394568765,
        -0.2210086341472979,
        0.025312333156020585
      ],
      [
        0.07857271906578414,
        0.0620518029258241,
        -0.11089826036651061,
        0.21925265124408488,
        0.182241609299667,
        0.24669019682973606,
        -0.028272581118806636,
        0.1667765691772214,
        0.1119640683917125,
        -0.1617190411498747,
        -0.23621028405719688,
        -0.16540579624774662,
        -0.19052877932495835,
        -0.21243376693090618,
        -0.070183377061338,
        0.12726193070754294,
        -0.09483222240464358,
        0.007095852632146642,
        -0.245088874943814,
        -0.14517431950948292,
        0.22985035737213314,
        -0.24430763995432875,
        0.013820499457811868,
        0.15484075249038468,
        0.146679009031936,
        0.11784885373602137,
        -0.05070192796037642,
        0.15137184408798943,
        0.1639480738948418,
        0.13358992023300964,
        0.24280528016166017,
        -0.1995421431285934
      ],
      [
        0.2251187780814588,
        -0.04900206558288606,
        0.1025890886312692,
        -0.12477405123635417,
        0.20481698207761898,
        -0.2381730365598505,
        0.038464796903157995,
        -0.13638364350247578,
        -0.05569050525711807,
        -0.06540495217530716,
        0.07846800412360558,
        0.15538315085090668,
        -0.06768097477283078,
        0.0689745968068611,
        -0.07295661897774229,
        -0.11050558358040712,
        0.20250556086417335,
        -0.08916419650855918,
        -0.2028485102886596,
        -0.08260692332357397,
        0.12080639902816973,
        -0.1443378252007547,
        0.12158932281870806,
        0.02320659776055321,
        0.09002422338927413,
        -0.1613307658333824,
        -0.1970952436160579,
        -0.17847296022699008,
        -0.0749250771918858,
        -0.03458844742144611,
        -0.24517497309782263,
        0.001354201515427081
      ],
      [
        -0.048149974417184514,
        -0.08889649627516391,
        0.0189456838039804,
        0.22600393203379385,
        -0.1477272759896752,
        0.18988926030965012,
        -0.08960194226492194,
        0.12710250846421817,
        -0.19619284469305887,
        0.24405738425057125,
        -0.034741550538383834,
        0.23152340247491607,
        -0.14008112458846528,
        -0.045749803537933675,
        0.10321111449749322,
        -0.16066855474667946,
        -0.11317606158088553,
        0.08849198900616174,
        0.22353565791678454,
        -0.08906497062069756,
        -0.15812917700015255,
        -0.07130001254284947,
        0.24493567432621438,
        -0.17599986504690193,
        0.06774413600638705,
        -0.06083931334077161,
        0.07176740329732129,
        -0.1439150646176017,
        0.05832491271993541,
        0.19359674130976123,
        0.1779255818080535,
        0.06432232695693381
      ],
      [
        0.002256216502111747,
        0.03337283357591421,
        -0.1933955696933148,
        0.16887843252312068,
        0.09495409481664341,
        -0.02292231612051072,
        0.08267675497329553,
        -0.04021096242636743,
        -0.05716492418493376,
        -0.13532584986442706,
        0.04997918160809131,
        0.036216203462473166,
        0.007567349908817882,
        -0.23414193491572127,
        0.06333797249911838,
        -0.02707680178353581,
        0.04650496278007474,
        0.04734507576520396,
        0.2161150493248599,
        -0.17389561862304137,
        -0.015885010926856874,
        0.24626717364526607,
        0.11883440201966368,
        -0.09330741999893552,
        0.11788561470122601,
        0.2445919219044949,
        -0.048701961547037695,
        0.18390466297701819,
        -0.1868438973959673,
        0.24525334627149048,
        -0.004222624401122671,
        -0.1328803422094122
      ],
      [
        0.1701586287198631,
        0.07467519946279205,
        0.2188854639775055,
        0.16461316281423966,
        0.1488498433004749,
        0.005861648018944922,
        0.246788736103508,
        -0.21739680193665423,
        0.18507837864896942,
        0.10582529633364629,
        -0.12470157099671042,
        0.1536642051814087,
        -0.022854580505535838,
        0.01813038425489892,
        0.18265484316104771,
        -0.15191320334211625,
        -0.11011511646412878,
        0.0717373550268851,
        -0.21334360597441643,
        0.027357245803750003,
        0.1435279275367534,
        -0.004635197651259814,
        -0.12902894891374003,
        0.15006176620607353,
        0.17751050078446154,
        0.13533081986283238,
        0.024652580620791155,
        0.20288039664034055,
        0.1484421013383282,
        -0.17420107532563622,
        -0.06715196166179518,
        -0.19977025047168184
      ],
      [
        -0.23160296525373697,
        -0.07715934188801227,
        0.18232964441414995,
        0.16698318911090218,
        -0.1912552347564866,
        -0.15908762027523674,
        -0.055680146421020496,
        0.17457611232149595,
        0.05859138336130266,
        0.20082149744449698,
        -0.2141145078631122,
        0.24389754847694498,
        -0.14668177116528444,
        0.06461616345788777,
        0.18822395653351962,
        0.11374425760406076,
        -0.15147203870972353,
        0.0842250039717379,
        -0.03457726809624844,
        -0.24226111862366737,
        -0.08025658039742514,
        -0.09236634057327582,
        0.06480037328190077,
        -0.11076432641787212,
        0.05144116524191307,
        0.09737611616541134,
        -0.1596144335178413,
        -0.1860141097934539,
        0.09685524996655695,
        -0.01670610818731213,
        -0.18540703808596443,
        -0.19203395828374148
      ],
      [
        0.22051609528924807,
        0.055257913310430166,
        -0.07104044682846775,
        -0.15194923359524534,
        0.24737569846025126,
        0.09578315474459129,
        0.11820054983067954,
        -0.06974656809953196,
        -0.09489672640349098,
        -0.045666009002819245,
        -0.17679482161960625,
        0.06579752432892952,
        -0.037507494990820275,
        0.16017347413506133,
        -0.045453831185435625,
        -0.021377429323914537,
        0.0033962576523969543,
        0.2208485633601016,
        -0.07702755968533413,
        0.10166073775640631,
        -0.13244330326898673,
        0.0395838446598023,
        -0.10750255925539655,
        0.18623493088261908,
        -0.10653165438912376,
        0.1772335240468228,
        0.08815619584295904,
        -0.022619261365520227,
        0.21682139979803877,
        -0.05627793686179373,
        0.12164346125815832,
        0.05082579249427796
      ],
      [
        -0.02608570213369187,
        -0.21854103848867995,
        -0.04109383138669603,
        -0.10915664972920071,
        -0.029339716470512384,
        0.22782588749195148,
        -0.10337912507135874,
        0.09737837999984104,
        0.08657084794880514,
        -0.12826967265691697,
        -0.04451851749106026,
        -0.18432822644103927,
        0.19746284653730709,
        -0.1244235342639571,
        -0.039956684107987354,
        -0.07998499463172064,
        0.159969763810768,
        0.17524717567832965,
        0.0459355569855344,
        0.02322171221079422,
        -0.20050646177509343,
        0.19820472404120784,
        -0.20611364137483384,
        -0.06805302384642031,
        -0.06345974187640473,
        0.11133793431743423,
        0.08491574943476189,
        -0.07795286496709634,
        0.1986382519699785,
        0.22517443030262033,
        -0.23795718582314168,
        0.06640058769358055
      ],
      [
        -0.015299463289277036,
        -0.0688113040538442,
        -0.01723476126527146,
        -0.09209877745394011,
        0.08535921837780978,
        0.052511786749748844,
        0.23520750405812632,
        0.23828433635520171,
        0.2460455236656693,
        -0.052137254197483426,
        0.16451936606826786,
        0.07518538962631605,
        0.10065335642058601,
        0.2489367312401702,
        -0.21655957942563483,
        -0.01851238908638066,
        -0.04921242575271157,
        0.07797245291247762,
        -0.1412404430717591,
        0.24470120123155376,
        -0.14515759668764935,
        -0.06498763221283826,
        -0.17835173137315513,
        -0.05273898888893044,
        0.12125090611706567,
        -0.20813798784296902,
        -0.1667790812672661,
        0.07441709356748803,
        0.06160671146260063,
        0.12083577014543165,
        -0.1234535588215997,
        0.15571260851020435
      ],
      [
        0.11530465088060769,
        0.1377561012979773,
        -0.19037309106754832,
        -0.015570313805452153,
        -0.2420646491451379,
        0.17994748810228314,
        0.22231332026996156,
        0.19782267693464695,
        -0.23774813020725002,
        -0.07454718568451796,
        0.017913718001946244,
        0.016737364107173833,
        -0.19441357506330073,
        0.14452795142742747,
        -0.09919625684742209,
        0.003486512829690073,
        -0.1878019648937289,
        0.033991789064448504,
        -0.18489227029089805,
        -0.2056227195532778,
        0.006136302850125364,
        -0.10301031876961889,
        0.13866428921569074,
        -0.12652785708088676,
        -0.04317046559557056,
        -0.22281424842933897,
        -0.14111921991690562,
        -0.02407274311318398,
        0.028957512214983844,
        -0.020151007092322752,
        0.175494492663867,
        -0.19782966341554925
      ],
      [
        0.1750067786007745,
        -0.17266316953371982,
        0.2350798208731138,
        0.012511002396623378,
        -0.046752508086007415,
        0.05621830354426894,
        0.1819675992535468,
        0.231918413816731,
        -0.04315360725633974,
        -0.24466597305617394,
        -0.17320378422749147,
        0.15928915028441168,
        0.11726660354296814,
        0.10630737817377452,
        -0.17175015643302854,
        0.015498859349853502,
        -0.235709022696036,
        -0.19485225289236097,
        -0.09957653269374675,
        0.2331129718031333,
        0.07146812410931358,
        0.17376003216924804,
        -0.22695684600032645,
        -0.041875184946587915,
        -0.21089456389260072,
        -0.11961621946610496,
        -0.19415182261403596,
        0.20946596947342497,
        -0.08565180009184227,
        -0.005453959925498218,
        0.0771017319884396,
        0.19344359390239058
      ],
      [
        0.2230514643019287,
        0.0337448459481132,
        0.00022172957715482956,
        0.20206468522973842,
        -0.05269558037743371,
        -0.10011816886653052,
        0.11977352767720316,
        -0.12085038220991617,
        -0.06580698003944835,
        -0.035470769077980135,
        -0.011626413069960253,
        -0.0708057996013751,
        -0.034693902413760865,
        -0.024660159422392046,
        -0.22526516136867988,
        0.16767213358080463,
        -0.21915604717543127,
        0.01400348350037026,
        0.02398692534189173,
        -0.049994874749464464,
        -0.13866495197431417,
        -0.200448901489541,
        -0.06410258106076129,
        -0.0927291097426262,
        -0.008134630599801,
        -0.13486893608966088,
        0.12473113850714966,
        -0.006246402225541377,
        -0.2456912176525045,
        -0.046522170550557546,
        0.23335360130151103,
        -0.2463467839829917
      ],
      [
        0.04653943644471733,
        0.22999403345310263,
        -0.06750159979316939,
        0.04909797890498013,
        -0.06546949246450197,
        -0.09915047158251197,
        0.05465629078023316,
        0.04462638427617098,
        -0.0921570837412159,
        -0.0015109605957539284,
        0.007953215415836096,
        0.12670583615883246,
        -0.22360955564202672,
        -0.20371908788761084,
        -0.12409763446545015,
        -0.11535688489712706,
        0.14763080761082684,
        -0.03717795135407708,
        0.1803748150544375,
        -0.04868605558911386,
        -0.10722293921873292,
        0.08991898650505145,
        -0.20740045151416578,
        0.24219191840648585,
        0.16538421694244845,
        -0.085950672328802,
        -0.0911548035755373,
        0.15981322695963862,
        0.14401639960004609,
        0.07131952737375181,
        -0.22141079366388994,
        0.13172296218895302
      ],
      [
        -0.22602598943758528,
        0.06230350744375804,
        0.026058033828034406,
        0.21363266542938716,
        0.06929319526379425,
        -0.23885826192265533,
        0.21709331369628346,
        0.12640553181261288,
        0.03987310870516846,
        -0.24722977171089539,
        0.11848174998355368,
        -0.04088940037082934,
        0.08980439516940233,
        0.24175426235872916,
        0.2083647071079811,
        -0.21254273911711763,
        0.14062659770995592,
        -0.029802236026087375,
        0.125788105947054,
        -0.06108830904565831,
        -0.026102038428656663,
        -0.0314939601671652,
        -0.19101437118712958,
        -0.08995566547425235,
        0.11733772222563316,
        -0.21423553695902683,
        -0.1919924850147499,
        0.16704821710305318,
        0.0831364841879252,
        0.024023836885001638,
        -0.19345740781894474,
        -0.1908502887782125
      ],
      [
        -0.09492494306954478,
        0.22696315272898038,
        0.03014727740685543,
        0.2110976843747591,
        -0.1444075216835376,
        -0.04264040144087876,
        0.018148079205679877,
        0.1696139956435193,
        -0.1884001029713866,
        0.18684428908825346,
        -0.013779477573358397,
        -0.23431004365822547,
        -0.034035734802643366,
        -0.06121814444992532,
        0.08721651223599067,
        0.21412432533281203,
        -0.0031830724924413497,
        0.09472925552132716,
        -0.05600866555415162,
        0.13927157811729612,
        -0.1973851914871057,
        0.12121258983607774,
        -0.16671322749554393,
        0.04292862966369832,
        -0.14892916907006157,
        -0.07687245398386879,
        -0.16805786969504438,
        -0.07509973158044644,
        0.04578243222244555,
        0.00993683436588606,
        -0.05578600975812642,
        0.03707380191341758
      ],
      [
        0.17119410850838734,
        -0.07080530635105466,
        0.04195525111620299,
        -0.009781079534395174,
        0.2403001756115445,
        -0.08600645518378143,
        0.0986739900322015,
        -0.13310421978118395,
        -0.11939702358386585,
        0.11526899373236939,
        0.037475367195943375,
        -0.1214331271120341,
        -0.21781696881796817,
        0.16240398329369907,
        -0.061276084868942156,
        0.10833985514938724,
        -0.03358564911352064,
        0.05876990253769762,
        0.02968087302292088,
        0.23778674986803364,
        0.2048108384380851,
        -0.022109594078614417,
        -0.0065158810368895065,
        -0.13432811199938982,
        0.1266193834030784,
        -0.1988451099615948,
        -0.09676085197989792,
        0.17372468168062813,
        -0.23243256426784092,
        0.09918961199084574,
        0.03399182537557837,
        0.0258032043875319
      ],
      [
        -0.08336111703775756,
        -0.1739463319093866,
        0.22570795632444515,
        0.13227289807359793,
        0.15276283604486413,
        -0.20145444045110017,
        0.14195996597046223,
        -0.14069730677882444,
        -0.15064350882061914,
        0.01780377922333509,
        0.05507940172760069,
        -0.18943124370474626,
        0.1325723027811839,
        0.04129774033539629,
        0.19982434819850262,
        0.21234330165891604,
        0.09474818658037867,
        -0.0680569448766806,
        0.22525128956322824,
        0.1091677478920552,
        -0.10440074953435746,
        0.17887285113950296,
        0.11360797578192626,
        -0.11768387321001958,
        -0.12504256516471918,
        -0.23970109107539525,
        0.01845136673053581,
        -0.12325861355952258,
        -0.10335732795540827,
        -0.12372174200124827,
        -0.18443264192586833,
        -0.007506799011303237
      ],
      [
        -0.1135461455244833,
        -0.10693704375616724,
        -0.11065763335146624,
        0.004424422866443082,
        0.18683590787300128,
        -0.170394568620704,
        0.1799078072650434,
        0.17731745006976785,
        0.054211947933765124,
        0.02229909497567736,
        0.11733048581903262,
        0.017494461898960336,
        0.08011222501818645,
        0.2098691580346703,
        0.13792864303108016,
        -0.11954922544022137,
        -0.2226417429018311,
        0.2183109299346567,
        -0.06901267795924405,
        0.14339255503033904,
        -0.13308185940839867,
        -0.02344512289916955,
        -0.06453785262176202,
        0.11439834431385998,
        0.22236600102575454,
        0.0029821415889004837,
        0.03264345819987554,
        -0.07577580055682553,
        -0.13377410342950852,
        0.22468275944156182,
        -0.195039732907705,
        0.22032320008330566
      ],
      [
        0.07846138310251964,
        -0.21415802749941446,
        0.20082774687839197,
        -0.1989880680895305,
        0.0327676970373309,
        -0.19004132266657758,
        0.24453930622110565,
        -0.09529169678122999,
        0.18612703112611906,
        -0.21936611409639595,
        0.08323935751165941,
        -0.2161366118760015,
        -0.2351086720838993,
        0.03539079733549726,
        0.24139232467984761,
        0.0924871356931331,
        0.17762028436449914,
        0.14242315349146314,
        0.010691143198038959,
        -0.21145916683144678,
        0.013533564772754653,
        -0.15765653903913351,
        0.013350493904223255,
        -0.07284624844091635,
        -0.0005500743627871608,
        -0.15123956169042987,
        0.10247327488789164,
        -0.04134928091167654,
        -0.007184843751478123,
        -0.21062854207810172,
        -0.006388434150388742,
        0.028872472901670877
      ],
      [
        0.2364008227321761,
        0.03111629380302039,
        -0.18211897711455824,
        -0.10002153473041694,
        -0.08231906212415953,
        0.10059119926558746,
        0.21940570873965531,
        0.2379451954341953,
        0.22451035632540356,
        0.2130332342846081,
        0.1796451121442189,
        0.21760977068466558,
        -0.2398340491840786,
        -0.00503306316216396,
        0.04561942874007376,
        0.09330143777947611,
        0.056466898299935536,
        0.056514709895706,
        0.21636150099805787,
        -0.20689809083376284,
        0.009881114080723041,
        0.22990247028868246,
        -0.23392510052729362,
        -0.1942473705962496,
        0.18500515307858367,
        0.22877375584685009,
        -0.2381625027330936,
        -0.23410856868655056,
        0.1650428273737132,
        0.0940286267000293,
        0.009615781817627837,
        0.04000645902981484
      ],
      [
        0.12883816215298882,
        0.15436398095457765,
        -0.24915379985256747,
        -0.21620327795550112,
        0.1469559088148485,
        0.2372073798293729,
        0.1666880561386877,
        -0.046189641545563695,
        -0.08271383821997001,
        -0.07618296477945999,
        -0.24216525855456644,
        0.1353064691785676,
        -0.1187316971154182,
        0.04297836758933478,
        0.01336204937744084,
        -0.08176576241678137,
        0.08760397902188413,
        -0.022612189245281855,
        -0.1331692984040149,
        0.1907483642092348,
        -0.16186790168456133,
        -0.1748535065187781,
        -0.12305851105436427,
        -0.010636794716826417,
        0.14239819923496036,
        -0.08334376970677367,
        -0.13116300400255887,
        0.07704792682600431,
        -0.11974297821275348,
        0.011148508488152532,
        -0.12278974331021583,
        0.18856081856115595
      ],
      [
        -0.1578669969155793,
        -0.13421782474639077,
        -0.09956690609462303,
        -0.08510310155765281,
        0.11324925054028201,
        0.08736003076986937,
        0.14512065850944075,
        0.02016398644321612,
        -0.21036225043217346,
        0.1315626890974034,
        -0.12799425820641072,
        -0.14113683007992953,
        -0.04279605248948574,
        0.24473553480128105,
        -0.06482357221712062,
        -0.07201268210290317,
        0.20541740409738896,
        0.2452088802607262,
        -0.056231914845189,
        -0.1821240286968846,
        0.14472310758782464,
        0.14106104494034571,
        -0.08100017296192345,
        0.14541455869466977,
        -0.060539059027492265,
        -0.10653821716685041,
        0.046808627157133666,
        0.12088327401995144,
        -0.012196607445095767,
        0.15930777169713478,
        -0.242961179993655,
        -0.0004269267716825624
      ],
      [
        -0.05987649390267088,
        -0.21753886541005993,
        0.2072247293830855,
        -0.17824550202050848,
        -0.1472183870874232,
        0.1890422762212816,
        0.23027787492656315,
        0.21569125898549657,
        -0.07905294152639084,
        0.21533197955416966,
        -0.1790346643541886,
        0.10717491513176693,
        0.22276808871384252,
        -0.1537362314535788,
        -0.18209101730965133,
        0.08903570034410956,
        0.19117966831845618,
        0.11324767037901742,
        0.22473693561828825,
        -0.0230515330177779,
        -0.0637361775291392,
        -0.18984436747684164,
        -0.11353583911617168,
        0.2194805155133479,
        -0.2141833722700855,
        -0.1575135260650346,
        -0.07621675041691817,
        -0.22536465519107576,
        -0.09659655100168223,
        -0.15852796831524368,
        -0.18857449682527821,
        0.013426298897336767
      ],
      [
        0.020175659447990386,
        0.03384857779068911,
        0.1311329482376711,
        0.0133682850425023,
        0.223557426575979,
        -0.2093056022527278,
        -0.13855782161889094,
        -0.21167183942246573,
        -0.0953523044258991,
        0.13035544302899052,
        0.21210756496213237,
        0.001853825929846221,
        -0.16983424556283047,
        -0.0848086119423804,
        0.034223412635143155,
        -0.1027710531663352,
        0.14637777108482178,
        0.2362800450259917,
        -0.020108529392331043,
        0.05157259760472246,
        0.17302152861382075,
        -0.01744818820451832,
        -0.15458253793687324,
        0.22202853580877835,
        0.23898027932782953,
        -0.23775304790847873,
        0.13136558120080452,
        -0.0497270326423386,
        -0.22403525800407234,
        -0.16858521290218592,
        -0.16351369469270888,
        0.11815755397526528
      ],
      [
        -0.1442239698431107,
        -0.24011943216855347,
        -0.13999077500509902,
        0.14953043384643755,
        -0.00041880595675263714,
        0.07623238251214638,
        -0.017338556855103694,
        -0.15885108712278542,
        -0.24257601104152912,
        -0.09776510064985218,
        -0.22902610490165068,
        -0.11973073104730697,
        0.059372004544831526,
        -0.06526123559693577,
        -0.01334521500656584,
        0.06202290391576833,
        -0.09147438415980054,
        -0.07164445440019131,
        0.19197116505100145,
        0.04048476061112642,
        -0.041398699899231714,
        0.020161382145218548,
        -0.01978002524841372,
        -0.08386323007260252,
        0.20700196777607666,
        -0.13320022547494845,
        0.21777688604014753,
        0.17644933150863057,
        0.1909538822870664,
        -0.16870047790137516,
        0.004475804090092662,
        0.24227031184656514
      ]
    ],
    "bias": [
      0.014204491505232002,
      -0.006575822670578738,
      -0.0031899810308808818,
      -0.02339848872706563,
      -0.00023293267089818267,
      -0.01766182339391838,
      0.00972388539675997,
      0.0043834055940818305,
      -0.020171324058567155,
      -0.011083586428962768,
      -0.006251772861389904,
      0.011316285671986878,
      0.0073685601511055835,
      0.005386438348103865,
      -0.004556200926308692,
      -0.005352505072186636,
      -0.008624495706075192,
      0.00030045208305665383,
      -0.000342074775449795,
      0.020792495346748624,
      0.015388162661340778,
      0.013758039650594342,
      -0.020419190918522283,
      0.00850004626407885,
      0.015225613388703683,
      0.008084380377574306,
      0.019538206661188835,
      -0.015049083918151835,
      0.0013890200508106393,
      0.0025714141895482115,
      -0.0032331600768941635,
      -0.007838782969979405,
      0.013110222084697865,
      -0.0009458167279432081,
      -0.011704267353736978,
      0.026364435926102856,
      0.006812120268426731,
      -0.0008349182955377529,
      0.007156599814257094,
      -0.0052531154527230796,
      0.004749001552262302,
      -0.011848434642661785,
      0.009219171247774887,
      0.004423568092275086,
      0.0017112585581055002,
      -0.008212104924908115,
      0.014800951568313028,
      -0.015398706844813414,
      0.012709677386569737,
      0.00720012903889065,
      0.014361179747618665,
      0.019570092189775613,
      0.007073207769850584,
      0.004348345820841131,
      -0.0006892519743706784,
      -0.0036720729445705058,
      -0.010922983192338842,
      -0.004704740477210056,
      -0.004294095030712875,
      -0.017977423519083435,
      0.0046260109193370326,
      0.012654813421055303,
      -0.0110777027530436,
      -0.003674160408630641
    ]
  },
  "discriminator_hidden": {
    "in_features": 64,
    "out_features": 32,
    "learning_rate": 0.01,
    "activation": "tanh",
    "weights": [
      [
        -0.058145474781350286,
        0.10056172923323681,
        0.03639666496263179,
        0.14328919002094942,
        0.15015621148996644,
        0.04847131111932399,
        -0.15644488813294163,
        0.056402594964682785,
        -0.14073975429745636,
        0.1704211254262541,
        0.1331810073988461,
        -0.06155930292175012,
        -0.10809113728234807,
        0.06844443708377533,
        0.0884796252893914,
        0.16873268137193684,
        0.04079205138987585,
        -0.1307445374571462,
        0.08490250626391453,
        -0.1478359509910889,
        0.13571969592290853,
        0.09699939671196312,
        0.0982010267197584,
        0.12948205485895098,
        0.022343324349790247,
        0.16180035681897198,
        0.05747515736421253,
        0.006015098365203455,
        -0.031442609249907896,
        -0.044020599837632256,
        -0.1663419873400628,
        -0.12252778383296402,
        0.10189955206106201,
        -0.09315474564469749,
        0.06007833689816284,
        0.10665918759521935,
        0.07620492665981694,
        0.011872032132928666,
        -0.06182198518393605,
        -0.08108481617996251,
        -0.11326988850326042,
        0.051584946453583164,
        0.06778945312531669,
        0.1638896276640709,
        -0.053951446044150614,
        0.1542294139899622,
        0.1478228151899734,
        -0.07400951934908317,
        0.1570355217712654,
        0.03952017046818439,
        0.1607658679079635,
        0.09928483052838846,
        -0.05561096184509198,
        -0.0756978094050416,
        0.00792096648907219,
        -0.0058656732311884105,
        -0.16680802186110796,
        0.12540924781473048,
        0.009933395882120302,
        -0.012179588571071084,
        0.0856687733466353,
        -0.08842074553925607,
        -0.10795609800769185,
        0.026013437019446833
      ],
      [
        -0.0974317301155284,
        -0.06660971749089578,
        -0.15789975453958474,
        -0.1629989524710685,
        -0.05732108940041177,
        0.003933881676525792,
        0.1532084601317631,
        0.043445191549192456,
        -0.03592720599613368,
        -0.034821904000700704,
        -0.09251150840060585,
        -0.002722799357668041,
        0.16483128685408893,
        -0.13512964275999387,
        -0.02977134514631097,
        0.05962278735281789,
        0.08687650262102074,
        0.020488217593419202,
        0.05570147373536913,
        0.16584417463664508,
        0.14969245796293046,
        -0.08625828325790762,
        0.008668651218917082,
        0.17006333192615,
        0.005085045040655708,
        -0.10387010998438352,
        0.1049267115823213,
        -0.14483296458848932,
        -0.11152642892817465,
        0.028317970376371137,
        -0.07923477812823698,
        0.07179151469641476,
        0.07439369448675515,
        -0.061509127315126755,
        0.10178428054359447,
        0.06420700213280109,
        0.08192990631195168,
        -0.007424069045094616,
        -0.02160690966347954,
        -0.1424786798179555,
        -0.014827475834739336,
        0.15856938028984774,
        0.13903168431904678,
        -0.14711416208712197,
        -0.14438257954813855,
        -0.07840814387006713,
        0.0703250027758222,
        -0.024598814577390073,
        -0.1376600697892005,
        -0.032140176966730445,
        0.019795183902275967,
        0.08757948503047498,
        -0.031830158904109625,
        0.054414005827853475,
        0.0613608366925377,
        0.03632609225507076,
        -0.1660354146095805,
        0.06835562185252,
        -0.13711024173892117,
        -0.16323159518061947,
        -0.01273366513972654,
        -0.17337747562172123,
        -0.15577281229786516,
        -0.044111373090644466
      ],
      [
        -0.00511606295045136,
        -0.13373708607893106,
        0.16634656188974184,
        0.12953964107582694,
        0.001527910820371891,
        0.03665569835518478,
        -0.05967300203832151,
        0.17698637952893234,
        -0.12859526984542263,
        -0.06775757305583616,
        -0.10016007515728899,
        0.12227736370959535,
        0.00011118655120293258,
        -0.03083842547522992,
        -0.029599426437122177,
        0.1429334038708626,
        -0.07983130684306405,
        0.10217490481812384,
        0.06728713056369749,
        -0.029762831278521175,
        -0.0556052874090286,
        -0.02494029623618252,
        -0.010652396621083254,
        -0.059415472347158854,
        0.04892717143927002,
        -0.037209887501887896,
        -0.08096730668211401,
        0.08377711398422785,
        -0.029474229352299916,
        -0.02126800419728361,
        0.13261826120907286,
        -0.01009424895711779,
        -0.03800104567517122,
        0.13853683120205057,
        0.16055099355903157,
        0.087872967590234,
        -0.04562945311469699,
        0.05081747427517745,
        0.0813800588517255,
        -0.06936050424385745,
        0.0852108869440204,
        0.16095793462574726,
        0.05273163368751018,
        0.04844251134108455,
        -0.031741051619613936,
        0.049366588203396226,
        -0.10007255050683797,
        0.09707309232959853,
        0.020036001599063335,
        0.17559435035125767,
        -0.04981699178183565,
        0.07323446344486194,
        -0.1748104048847031,
        -0.03278782057048535,
        0.09585846954542727,
        -0.08102245609490631,
        0.04583173269657334,
        -0.09250498565191421,
        -0.03012389756842798,
        0.18043947561337076,
        -0.1045141267362314,
        0.14738124541914666,
        -0.15148127180647486,
        0.03496516446845969
      ],
      [
        0.0982381567664989,
        0.10476179099793874,
        -0.05354501007355658,
        0.018751990318818846,
        0.059102660313038416,
        0.07812100033544227,
        0.07298055850682927,
        0.012665604632296617,
        -0.10251387410937574,
        0.064731882700512,
        0.01974565623768777,
        0.02689612090139002,
        0.1725022065347811,
        -0.13278922189162568,
        0.083516052074678,
        -0.07748214206469249,
        0.0648908367696658,
        0.1559640194719627,
        -0.07125867326310015,
        0.04375616741744454,
        0.021830158480210204,
        0.0007243079536086948,
        -0.13291986974088701,
        0.029484186151854854,
        0.12566225025742894,
        0.06630260962406898,
        -0.054429157991616545,
        0.13072030693793393,
        -0.004174512650199118,
        -0.10213120210565192,
        0.03846083787181554,
        -0.02916358044566206,
        -0.00433953165050979,
        0.17221647288990144,
        0.03569091540329846,
        0.18339176537248225,
        -0.035006614489143814,
        0.10774408111526078,
        -0.14670105821145518,
        -0.07941844551872361,
        0.052496975963055144,
        0.06066127585029593,
        0.11803828482925734,
        -0.020471507014246226,
        -0.06588988955409826,
        -0.04280185627800159,
        0.016717942580276594,
        -0.17416869959405382,
        -0.06008490348524445,
        0.04056867020436129,
        -0.13990047827781038,
        -0.06568695206969476,
        0.1356422308862581,
        0.15657353724240541,
        -0.09497740648978167,
        -0.1250433489818541,
        -0.14976182519043116,
        -0.16216646072651272,
        0.08905432362151881,
        0.0695250150322685,
        -0.09230658567884283,
        -0.009822719286332743,
        0.057493975224102836,
        -0.1812368496280157
      ],
      [
        0.11630855110153286,
        0.13046103778825913,
        -0.09858864809092953,
        0.07477913998743606,
        0.07412925096881419,
        -0.05428688698649667,
        0.13707219265524223,
        -0.09604854787519584,
        -0.005849994362101459,
        -0.06448277812050761,
        -0.020718327401233576,
        0.10749988714640966,
        0.02412084745001135,
        0.039831956817623235,
        0.1757826211547421,
        -0.09421916823808266,
        -0.09450894679976413,
        0.042288855751305705,
        -0.12614878263025492,
        0.159168511443153,
        -0.05897471226467477,
        -0.021673806551959923,
        -0.02083362596571206,
        0.11929796626521391,
        0.14972221508355082,
        0.06009169799845055,
        -0.12114848008344438,
        -0.056536994626317144,
        0.0674904819700909,
        -0.10499944156799486,
        0.13506823310286517,
        0.1351018408264558,
        -0.09325912133792029,
        -0.04840779184666295,
        -0.09873095981205973,
        0.07189204198768238,
        -0.16396918721242623,
        0.06585421927252366,
        -0.15505872305781251,
        0.12270843077993256,
        0.018821386722961974,
        0.031078183426033194,
        -0.1435040094635696,
        -0.16545480925314487,
        -0.05483111257378637,
        0.17035685728320146,
        0.03497975825980623,
        0.12967310254966857,
        -0.15101417445480567,
        -0.13730720445185987,
        -0.1657729765456722,
        0.06938372948898368,
        -0.11495004666122433,
        -0.0807467463535362,
        0.060766086017563226,
        0.07172911341489213,
        -0.059402378427962615,
        -0.007896717699028173,
        -0.07113551623112337,
        0.02514570072648639,
        -0.04881751985444126,
        -0.04791531881180531,
        -0.08607078006171401,
        -0.07016134271965367
      ],
      [
        -0.0838475499331661,
        -0.1703852199880618,
        -0.06635550516426982,
        0.03303754578418694,
        -0.08108245010630466,
        -0.13619802107385998,
        0.12296942453727407,
        -0.010250049641363114,
        0.004822797057822212,
        -0.06634047852543601,
        0.13663353305044876,
        0.0889034553463248,
        0.04300760678690064,
        0.056495955836353605,
        0.06873412919890667,
        0.0008668199631748516,
        -0.0300324114911238,
        -0.03911304898569603,
        0.0006164406628274858,
        -0.01260214832023848,
        0.009239945991018635,
        0.011412575411688546,
        0.10270461099633775,
        0.1394584233143462,
        -0.09706857048276941,
        -0.1697784358047171,
        -0.07185967600131951,
        -0.16714147323564946,
        0.10315076943380977,
        0.04118367910841179,
        -0.07608435592868257,
        -0.10846951617190369,
        0.13099043463701726,
        0.11851465812508154,
        0.0639505060415861,
        0.06617171474837645,
        0.08525280681662634,
        -0.017016726259888648,
        -0.036548314784408675,
        0.019047367521494895,
        0.13519562749027772,
        0.17394261434857974,
        0.1471390592049653,
        0.11725313744151883,
        -0.15140533300589076,
        -0.08991946242819335,
        0.1662817698626488,
        0.015632520461272618,
        0.0059542013398324435,
        -0.0665582681491235,
        0.12867837959807718,
        0.005679628859368673,
        0.1730648692530919,
        -0.15030699050021126,
        0.1746685744100977,
        -0.17154376865675444,
        -0.12371787579257597,
        -0.038351501260082355,
        0.049984775499701616,
        -0.13699456438183427,
        0.022427322440366722,
        0.15558502635123803,
        -0.022289063361768443,
        0.09339432404595517
      ],
      [
        0.01730462170248269,
        0.01479017995159617,
        -0.13045878208636413,
        -0.024754762882110974,
        0.12587720152582424,
        0.04735344376062775,
        -0.1141451057852715,
        -0.03383001072982929,
        0.0009097282069181117,
        -0.0633984631039481,
        0.028915221238417704,
        0.06017462559015612,
        -0.16540276934208337,
        -0.10326201816927566,
        0.03988706782611998,
        -0.1163300510636406,
        -0.16610507593181034,
        0.09351060211098819,
        -0.04602510211397478,
        0.18590755077862253,
        0.03761885817900888,
        -0.13715687010131503,
        0.033366158465070975,
        -0.09878468590446063,
        0.09895946026991857,
        0.09115951632844259,
        0.11544248117260118,
        -0.13011803892486828,
        -0.13655488984460365,
        0.1292659472330845,
        -0.12530800743766266,
        -0.12042348689654182,
        -0.1809219840998372,
        -0.11473413655663377,
        0.007286590965258614,
        0.18944112721597645,
        -0.04110009893609596,
        -0.06628228803026459,
        0.12111572899005482,
        -0.11998541540756998,
        0.03260587950707748,
        0.034629159191078555,
        0.15767593396578344,
        -0.13833798312098083,
        0.03958598087111664,
        -0.033718298730682945,
        0.11844704529058199,
        -0.09336261785053909,
        0.060480402790688656,
        -0.12611629216006245,
        -0.017215869297177878,
        0.1674684188808957,
        -0.08626465638786808,
        -0.0742902843604257,
        0.14126604482485072,
        0.05042899265352511,
        -0.16791542990490066,
        -0.12635562387850666,
        -0.10763438292770791,
        -0.08910448086497576,
        0.11326382519686995,
        0.06509865737826519,
        0.15794635261789497,
        0.04576808725215324
      ],
      [
        0.04321777918471594,
        -0.043179343462357495,
        0.07491748485522545,
        -0.003604679540210397,
        -0.15801329284895307,
        -0.004666902272711225,
        -0.04274204453296397,
        0.008966864457738854,
        -0.1613955457262555,
        -0.16569788862752707,
        0.1740380332191842,
        -0.03808577072013752,
        -0.05638435225629429,
        -0.12309087866741307,
        0.030643214156659077,
        0.14459410118903654,
        -0.11495844424050011,
        0.0033494236756886034,
        0.006695724088495275,
        0.10433889278795731,
        0.030128861232014574,
        -0.08946137241366693,
        -0.1117157244017698,
        0.07754157510818618,
        -0.1505081016789316,
        0.13610563933804765,
        -0.15459335909423835,
        -0.09877023958099411,
        -0.0008032526446859728,
        0.13068039782110208,
        0.04487826375731162,
        0.08496992077353992,
        0.09036925369834568,
        0.08226910920821398,
        -0.15135309780557932,
        0.1255157828352507,
        -0.11646330398599213,
        -0.1124111872784767,
        -0.16045003105494532,
        -0.16760982454197,
        0.13125426579854313,
        -0.04122920427216583,
        -0.1433587802984445,
        -0.15138161652988283,
        0.12910482962067837,
        0.039759614780119294,
        0.1499848299729001,
        -0.16350825620489243,
        -0.13905044553356027,
        -0.07738662337955282,
        -0.11130202261082453,
        -0.13450531150915498,
        -0.10270434435460944,
        0.052397351112734296,
        -0.11735568616849895,
        -0.11844879792549498,
        0.010738017639523664,
        -0.04601732650616937,
        -0.1257959682198607,
        0.02216705451748058,
        0.0019600407320118332,
        -0.0395463896546689,
        -0.010516048757092772,
        -0.1645286311224494
      ],
      [
        0.037501929605698966,
        -0.11125228419998308,
        -0.06107412325553376,
        -0.17632998220536805,
        0.13381617796794973,
        0.028090526713984588,
        -0.040977692706932606,
        0.011749912262613375,
        0.15267043280323572,
        -0.1316719463372017,
        -0.04222172476269376,
        0.07441473389935532,
        -0.046623247306576125,
        0.07136097428731981,
        0.14128970062874666,
        -0.16538858495062503,
        -0.07931233145780478,
        -0.07418731211989585,
        0.08880940217359323,
        0.10227644014972809,
        0.07046980120616625,
        0.14906351619765865,
        -0.11419139143622765,
        -0.040705949280433175,
        0.12200590952770812,
        0.09454620451971261,
        -0.13526328341399457,
        0.17155898143423343,
        0.08657457869120128,
        0.1309276663494897,
        -0.04978984677959858,
        0.03434652903150969,
        0.15918863629090726,
        0.13939670066820914,
        0.027107832635741395,
        0.1392689936769663,
        0.17692209989022828,
        0.12061632465351653,
        0.05422993562091029,
        0.1603630606850698,
        -0.1289732921529422,
        -0.03594310098440957,
        0.021649100517579824,
        -0.12872191270013913,
        0.09963186567663572,
        -0.1551072795139454,
        0.04490254016779885,
        -0.07964905057562686,
        -0.06567291885690234,
        0.03480028988824477,
        -0.11219516032782861,
        -0.019587261000421633,
        0.12549534244360366,
        0.17141869199832163,
        -0.08581151543500484,
        -0.04998834750904295,
        0.06548778732789103,
        -0.11274594483655925,
        0.12038671585567627,
        -0.10954458271810015,
        0.017638732250968674,
        -0.05854038736568758,
        -0.17902963316403472,
        -0.17929892158584254
      ],
      [
        -0.18359771061117863,
        -0.067893430872539,
        -0.08691724859100748,
        0.16779658357739033,
        0.0408941997500084,
        -0.1607671446840627,
        0.06938036878037122,
        -0.10206463681048633,
        -0.013742946732900847,
        0.07606842807942765,
        0.12671064347154976,
        0.16094554734596486,
        -0.025628782180491454,
        -0.06751969796966559,
        -0.04400462081827756,
        -0.07384950847146689,
        0.07799317509819734,
        -0.012987731390782603,
        0.07126708960181848,
        -0.11144252455609954,
        0.10780921729765598,
        0.16589436623931766,
        -0.11244781878999151,
        0.033893337205971735,
        -0.12551253280151023,
        -0.15840862613825388,
        -0.01875246202563539,
        -0.09933319235276276,
        0.09537723694626536,
        0.03635296246717491,
        0.06292203559435415,
        0.15796240756890076,
        -0.16350291791471233,
        -0.14042277871108735,
        -0.1566595554965169,
        -0.001046817274782208,
        0.12489396883471443,
        0.07292275483273963,
        0.019084073418746156,
        0.12173900704497496,
        -0.05273669161378229,
        -0.1409247174118288,
        0.0508315718867484,
        -0.15747295020730515,
        -0.08852404968621802,
        -0.16371706153891627,
        -0.11885187068718694,
        -0.15737259167186285,
        0.0033861376349852168,
        -0.13887465475910885,
        0.028861275023337227,
        0.11590799358895958,
        -0.05259025726680292,
        -0.13349734888122664,
        0.05707664486139989,
        0.07526291447041268,
        0.12859500263002543,
        0.01139331868668924,
        0.02170947119853777,
        0.12100204864041472,
        0.05837315774041419,
        0.1647142126423411,
        -0.0810169304593157,
        0.08994851260220792
      ],
      [
        0.03981300547351055,
        -0.01788310717054857,
        -0.17995107016363013,
        -0.013721489034840582,
        -0.09100785091421223,
        0.029186692941805037,
        -0.003244050591000822,
        -0.003410075275912783,
        -0.16280378259428768,
        -0.13181203029651234,
        0.04015774051895113,
        0.07241416211832798,
        0.17681446288194347,
        0.10230462259000349,
        -0.08154590331137641,
        -0.0229121373469679,
        -0.0050159904950210265,
        0.10985749256551317,
        -0.02868911483144821,
        0.162756236856994,
        0.004217777326647806,
        -0.03282231335654348,
        -0.01422397186135855,
        -0.057354275399637694,
        0.17106476032490434,
        -0.15289278594740086,
        -0.02142760612279733,
        -0.1331744678758252,
        0.07804918962269027,
        -0.10997631219774769,
        -0.12290448035814004,
        -0.03409825815580827,
        0.029123204904601425,
        0.09646978180300643,
        -0.009602540799670316,
        -0.057341028292433316,
        -0.033835745000547826,
        0.14841032272602586,
        -0.09782755880784123,
        -0.17640735219289838,
        0.12915315756746956,
        -0.008027674321750064,
        -0.12672692828508167,
        -0.11557780498751101,
        0.1483296925750702,
        0.09367750488225525,
        -0.15057383972118957,
        0.059841183411391996,
        -0.10852835904473128,
        -0.02612570486372254,
        0.029858884563683994,
        -0.15756856666570362,
        0.15776319002320346,
        -0.054966136468077756,
        -0.1282103481227189,
        0.09389903183051804,
        -0.14496032259638236,
        -0.17093054718295905,
        0.046778964653563695,
        -0.01755402768781472,
        0.13788013257099793,
        0.10067580691929656,
        -0.10918237181993942,
        -0.16744334110554882
      ],
      [
        0.04053283857568075,
        -0.006647564919534569,
        -0.06632947905756904,
        0.15065929066414302,
        -0.09889229168507811,
        0.054418864794088716,
        -0.14707717919307453,
        0.15376041044376634,
        0.16249084386427337,
        0.04301696262606271,
        -0.06401584833058897,
        0.07519800693743368,
        0.1408290003441849,
        0.10512717687427711,
        -0.15818567466500277,
        0.005531028344429975,
        -0.12331738681633907,
        0.01574311975880334,
        0.1553060476421696,
        0.12169810045595093,
        -0.09406925814948522,
        0.01678349778362516,
        -0.06055938642506895,
        -0.11332879972769731,
        0.0895001012226138,
        0.08798316473476224,
        -0.06506755140210113,
        -0.036258643730788395,
        0.06070083673767215,
        0.07299013139394518,
        -0.013954736809995039,
        -0.13093346575890624,
        -0.13907284183628088,
        -0.11864571451517522,
        0.11015388157388026,
        -0.009978125345289761,
        0.04412483289239655,
        -0.05417988869162447,
        -0.04886079273476219,
        -0.11274032006906977,
        0.17181846894879288,
        0.038548124836726004,
        -0.13301465699051912,
        0.06425279940159927,
        0.028541721695261552,
        0.03688124321126907,
        0.09344688393747534,
        0.03937397689494956,
        0.13728167338088093,
        0.1700107024203893,
        -0.02881874273405811,
        0.05132815703029381,
        -0.047123421190552024,
        -0.03358770659768432,
        -0.046115875333014276,
        0.05477833323158722,
        -0.0483433668013861,
        -0.04817192419188667,
        0.12650355049713466,
        0.10987915079759648,
        0.06413605193083742,
        0.12256066703281066,
        -0.03745254150251165,
        0.05417018145351859
      ],
      [
        -0.07301624604327053,
        -0.0512739483477494,
        -0.12653617639228895,
        0.1183023991980884,
        0.16453660442569046,
        -0.05580918249970943,
        -0.029243358956372326,
        -0.12060730228125703,
        -0.1123462515741668,
        0.0551039029039322,
        0.14090695770731282,
        -0.15350546094995626,
        -0.08575186170246382,
        0.0964431655368443,
        -0.08179265135658229,
        0.14846701237985183,
        -0.03720841276125818,
        -0.00870866849930917,
        -0.11159985607471541,
        -0.08854609213581215,
        -0.03398176303064329,
        -0.079987436383295,
        0.09571284826761159,
        -0.1516467302187586,
        0.0618622328638547,
        0.10023987796964927,
        -0.075995027828466,
        -0.1253697445449744,
        -0.15142751908452937,
        -0.16660926665780257,
        0.10443551190517053,
        0.051052506387535945,
        -0.1570032200375937,
        -0.01691049520862422,
        0.027046227884050734,
        -0.08112914386432492,
        -0.17777873085609655,
        -0.04277330941550893,
        -0.05523039597556545,
        0.17534644354526646,
        -0.03481801026308201,
        0.154826157978737,
        0.1274826781603754,
        0.008876627416392476,
        -0.1466601195554521,
        0.10188376538407105,
        -0.1493153992772732,
        0.025432200231745247,
        -0.12723597177278204,
        -0.12951686641410548,
        -0.016398992686865208,
        -0.1204083564755664,
        0.1700730945504626,
        0.023324082211538658,
        0.1461526894142866,
        0.17175367254372156,
        0.10545814684538435,
        0.06674039125657401,
        0.004937457861903713,
        0.11274004231173143,
        0.0684113152522644,
        -0.11574109329631889,
        0.02142462021114294,
        -0.01669918794416746
      ],
      [
        -0.001435994316207211,
        0.06876351487180084,
        0.05999366762639593,
        0.019083940217237895,
        0.09492589464306592,
        0.10847277051469942,
        -0.15055464443228642,
        -0.13236285438607662,
        -0.1667096758116465,
        -0.12270675076726552,
        0.1626294663599409,
        -0.0610872111217547,
        -0.020688510288708467,
        -0.014318819284137346,
        0.01561396260656843,
        -0.08499105716605813,
        0.09165703312493523,
        -0.05914099316440426,
        0.12783484206357962,
        0.11826618853923998,
        -0.17040813186806886,
        0.018100145712192497,
        -0.15072118948486654,
        0.12900649412006793,
        -0.15793527023507725,
        -0.0766625133552852,
        0.10601283869578206,
        0.04379775906072917,
        0.07032136560607177,
        -0.02086682394700491,
        0.007957682597621224,
        -0.11182428338504065,
        -0.020017367743717828,
        -0.0851521232030425,
        0.06810987317397811,
        -0.12781665887693075,
        -0.12029579725548473,
        -0.1007026168666653,
        0.011862981893176989,
        0.024784843346508517,
        -0.1826711542974383,
        0.16930689052444256,
        0.11979366818604742,
        -0.03304185140140811,
        -0.11506616831534039,
        0.11748728581134822,
        0.16953815473409403,
        -0.11703633233450107,
        0.08335671119187914,
        0.10563051200844867,
        0.14746583654730283,
        -0.1022581726293905,
        -0.1336802934304673,
        -0.11774024854323105,
        -0.0984941528215627,
        0.13622787839913297,
        0.1383407801961416,
        -0.016400631700799348,
        -0.13844569702241732,
        -0.0588868971655002,
        -0.09567837101951732,
        0.049214932527991355,
        0.07238200868933418,
        0.09113842486063213
      ],
      [
        -0.027348628568674514,
        -0.020141908437018474,
        -0.01644260156790416,
        -0.05022257207705889,
        -0.021199201162543486,
        0.06066725997874245,
        0.06990623198401037,
        -0.0664978724202542,
        0.018652256602069955,
        -0.12869524292035836,
        -0.16276433104268265,
        -0.03900212629928622,
        -0.049916982201440745,
        -0.16686705195347937,
        -0.1539855849061492,
        -0.03144040962626624,
        0.1512919982707103,
        0.11779112655871073,
        -0.1651473847786139,
        -0.06083383900463847,
        -0.043176702085234685,
        -0.06577404614053396,
